[148.154876]
[1.27485208]
[-293.38352237]
[414.72544855]
[272.08913426]
[-86639.45688865]
[75914.46781676]
[32341.62273242]
[221.10121473]
[29299.55111699]
[125.23036028]
[94.41108334]
[-93.8628632]
[-33.72828002]
[3353.19773414]
[-621.09628889]
[791.73653574]
[1767.7603891]
[4191.67404957]
[119.4381209]
[76.61034007]
[-15.2001293]
[82.24245937]
[-1456.66208384]
[827.38670233]
[869.29095225]
[586.23449525]
[427.02672652]
[90.24676903]
[-17.88762241]
[141.69677379]
[582.8193845]
[-234.03751062]
[-256.07145243]
[-385.17740076]
[-33.41767384]
[-10.7350066]
[257.10718884]
[59.95545968]
[383.72804202]
[-404.15839004]
[-514.28643448]
[38.363664]
[-44.61028891]
[-729.64353276]
[377.40833831]
[439.7942911]
[308.51437343]
[189.85967932]
[-109.77379701]
[-1919.65701333]
[-1924.63378461]
[-3489.79527647]
[11796.96868792]
[530.67441474]
[543.30591122]
[1821.07517948]
[-10463.9806508]
[-516.6276109]
[2064.35917359]
[-4199.41333766]
[-140.49570522]
[374.15709004]
[51.47574919]
[-46.44927304]
